IND|P1 |P2  |P1  |P2   |P1   |P2    |P1    |P2     |P1     |P2
0.1|0.1|-0.1|0.01|-0.01|0.001|-0.001|0.0001|-0.0001|0.00001|-0.00001
0.1|0.1|-0.1|0.01|-0.01|0.001|-0.001|0.0001|-0.0001|0.00001|-0.00001
0.5753203396767186|0.5753336442533479|-0.5756392812779313|0.057094151995272846|-0.05753173003160916|0.00587384047083467|-0.005678614685683702|0.00067829408366296|-0.0005083957909004014|0.0001105835313418333|-2.8236110005846482e-05
0.5758168152332238|0.5755371121200032|-0.5749277737491748|0.0579225603236053|-0.056769172028116585|0.006644200049474443|-0.0051142934056593575|0.0012968419662814233|-1.542748835751363e-05|0.0005627330138857997|0.00014441252706012036
0.5760621002370688|0.5756363411661017|-0.5746126350701002|0.05798710483291814|-0.05634027925276428|0.007175534929896561|-0.004847682314909595|0.0017376670938994642|0.0001775939250363894|0.0008506228400710751|0.0002910547529533493
0.5764736792421391|0.5757927314333026|-0.5740417775519341|0.0585856290568782|-0.05564142582873321|0.007927662158788254|-0.004269516419012667|0.0023793150429479537|0.0005106780778416291|0.0011764819041789872|0.00048821591488947225
0.5769365641337296|0.5759646567065365|-0.5733884131287642|0.059323566109597006|-0.05486948602131829|0.008826491152968343|-0.0036500303785708334|0.0030759315477548862|0.0008829892896035554|0.001613255600010613|0.0007896844444545535
