IND|P1 |P2  |P1  |P2   |P1  |P2   |P1  |P2   |P1  |P2
0.1|0.1|-0.1|0.05|-0.05|0.01|-0.01|0.005|-0.005|0.001|-0.001
0.1|0.1|-0.1|0.05|-0.05|0.01|-0.01|0.005|-0.005|0.001|-0.001
0.5325561072602647|0.5325707003681198|-0.5332403862171957|0.2653639041003308|-0.2661176673228058|0.053573888636499326|-0.05311749564727815|0.026835657634831384|-0.026489314390568647|0.005431903142470064|-0.00524843011179434
0.5347640411635619|0.5330113046895749|-0.5308208275929331|0.2687085993579925|-0.2619130669581061|0.05873398300205746|-0.048474154420385815|0.030336927863726784|-0.023321957608417793|0.009037133626535802|-0.002741394464965013
0.5360556616766226|0.5332747590549785|-0.5302107322724888|0.26969165471339085|-0.2585302406088786|0.06154038982244616|-0.045664063158032585|0.03347337448123896|-0.0213059767123234|0.0108481260609292|-0.001716061063090829
0.5377961587524843|0.5336309789960383|-0.5285640124005532|0.27092170903018714|-0.25536382761140086|0.06651746183146408|-0.04162164123459548|0.036379656670118235|-0.01878307615102617|0.013815066484972948|0.00015692982862200192
0.5394060984256789|0.5338757858781759|-0.5271226399893976|0.2726474171602046|-0.25158862746945293|0.07005755283122954|-0.03828197474894132|0.040091461230240655|-0.01590295384776661|0.016979821190210385|0.001965516972830452
0.5403231431710295|0.5338065919382207|-0.5263306136320545|0.27481741230854323|-0.2483305409977138|0.07274977191668458|-0.035759484560094076|0.04208612483542534|-0.013646679496965977|0.018611842863193707|0.003113888397476941
0.5410763918083742|0.5339052706532137|-0.5256751734014408|0.2751809791244529|-0.24671794148173787|0.07481915241162437|-0.03401354519102375|0.04398825171727603|-0.012378801639465501|0.019799326915116624|0.004213923980904199
0.5414691834177653|0.5339717134167773|-0.5253981142545564|0.27508888135504606|-0.24591675238676616|0.07605791931342411|-0.03323553364346866|0.04494462309686141|-0.01184342955131398|0.0204637058074625|0.004975485574041058
0.542420405993719|0.5339526304701775|-0.5244446910791835|0.2765822271256505|-0.24310982653810617|0.07953860200324661|-0.02971857182451001|0.04694704955913759|-0.01045594372742387|0.021745330229363456|0.0060454218241000595
0.5438299544159282|0.5340773123302885|-0.5235111101764167|0.27657360278401844|-0.2397062745623705|0.0836083074987595|-0.026264354439134222|0.050775555276119946|-0.007211180817715526|0.025012106220942944|0.007651002383652871
0.5455083343970643|0.5341488633290835|-0.5223420025544082|0.27682791709901144|-0.23500903568147938|0.08958908395861347|-0.02134721324556034|0.055038313035837484|-0.004155128598485574|0.027890385081028052|0.009760977633389328
0.5472707542442772|0.5343310712303863|-0.5210132744697155|0.27552882141422463|-0.23124389938336798|0.09520591303308615|-0.017064431971230632|0.059991065500569256|-0.0007929951906879448|0.03207193421874328|0.012521852911369728
0.5483006758683978|0.5344395516226695|-0.5209126857351496|0.27385928117672165|-0.22794710831862364|0.0993533330002148|-0.014886882226325934|0.06319768886932393|0.0011050207941113105|0.03384830223287867|0.014083242249525282
0.5494281696647229|0.5343564113860602|-0.5201421376781272|0.2730561344670363|-0.2246999149964774|0.10372543539843715|-0.011287509268818899|0.06689222350902087|0.004001685042683661|0.03697743321274647|0.015813816786406736
0.5508872402755619|0.5343217319457095|-0.5191573737443277|0.2709990365334805|-0.22087378930608548|0.10878122626029323|-0.00796385372457623|0.0723111454823684|0.008197559318687793|0.04170269015739147|0.018478465724804334
0.552213741152051|0.5341882776033314|-0.51866890791843|0.26898498716141606|-0.2161336660381005|0.11394414730234377|-0.004170257138628372|0.07741143728906806|0.011808179217640923|0.04537630789429053|0.020666746543067355
0.5526533299935719|0.5340548894552314|-0.5183167850666444|0.26865200338017325|-0.21441523252726027|0.11617901073526286|-0.0027498245472738665|0.07893013074797693|0.013059661243790068|0.04664129944352129|0.021875469784994637
0.5536676542381183|0.5336519370655894|-0.5178704875629869|0.2678664535059917|-0.20927488441687642|0.12168986264910592|0.0010444460594008296|0.08273675484153371|0.016510991858821447|0.04931021892742244|0.023884890257933493
0.5541184805925681|0.5335148409177939|-0.5176842261002308|0.2676563554838609|-0.2067602345802906|0.12375058694917421|0.0024732945419336408|0.08442453290101133|0.017591612057091748|0.050562255722249726|0.02478131490560355
0.5549375468144614|0.5332217331643718|-0.5171393520193553|0.2659143310012309|-0.20343977633885554|0.1278481130152812|0.005315656198912372|0.08850478766136184|0.020658918403030132|0.05334788462654524|0.026614613204222478
0.5562218857379173|0.532328643576503|-0.5160022685391616|0.2647931601546474|-0.19644840798617738|0.1346782413749403|0.011859793384375355|0.09462164451098717|0.02516729913502736|0.05890888836741147|0.030690457283000704
0.5566948192832194|0.5317488334778881|-0.5155814414888167|0.26457365945605626|-0.1924977518149978|0.13847054307269133|0.014810973340697017|0.09742852659094377|0.027678459000706142|0.061294836431609476|0.03234655544237284
0.556991698614669|0.5315216394334982|-0.5154390098454817|0.2635492171609122|-0.19072386406522632|0.14018909782443054|0.016491714989403893|0.09978879261614577|0.028924929054628828|0.0625893835379626|0.03312090021868491
0.5574434848620359|0.5309418401449051|-0.5150141088409537|0.26300384748844713|-0.1870035066118719|0.14377946327826244|0.01961720275832983|0.10262402711910219|0.031077268942070146|0.06479559848726581|0.03497613628314164
0.5574477257397972|0.5309423812866699|-0.515000434197203|0.2630154127017553|-0.1869959680384583|0.14378746859674665|0.019622869800174348|0.10263184940555459|0.03108227078568028|0.06480163492636165|0.034980353245252484
0.5577760428700748|0.5305065539387682|-0.5144847859941827|0.26250344954722843|-0.18513204116530999|0.14601534273452227|0.022214926968630935|0.10394136494631155|0.03345566738199239|0.06737257403013182|0.036000242583638875
0.5584480875844712|0.5294259779228238|-0.513800083688644|0.26010305128367545|-0.17912582360851087|0.1519487305092226|0.02749694002979227|0.11015484497578931|0.037924778485330796|0.07200899118479137|0.038878162046658275
0.5590284728992366|0.52901712488021|-0.5132351608505482|0.25686068393725436|-0.1762590652474065|0.15602565517617825|0.029422265950829644|0.11381993904478432|0.04043382029330497|0.07512882023782937|0.041583192742951296
0.5593574938115824|0.5283876826308527|-0.5127528948709592|0.2552202159192941|-0.17336173551816547|0.15906039424217097|0.03217643513794647|0.11700612079485075|0.04313040383010935|0.07778332390050116|0.043382350061207955
0.5594617949059376|0.5279963503376703|-0.5120765636100796|0.2555736985042303|-0.17232415915029134|0.16051419626822697|0.03407904128622735|0.117775753865436|0.04420594154096508|0.07920086436333953|0.04429624405538652
0.5597360937611583|0.5275669004389002|-0.5118493340821662|0.2532139584586485|-0.16989075332660114|0.16350163294754747|0.03583055162629271|0.12035185537328616|0.045808633161426984|0.08173258857311072|0.04603178111506764
0.5599014216898542|0.5272685415595697|-0.5115639350902975|0.2514091326591973|-0.1690131725339217|0.16552114290461925|0.037787747809515874|0.12181590252894513|0.04701144103356093|0.08342777007196249|0.04684094109518845
0.5601770452479178|0.5266059106564258|-0.5109014977542227|0.24908067165582026|-0.16628004456752887|0.16912352342915482|0.04063973190390261|0.12535307412946703|0.04956200292127916|0.0860143599337416|0.04852534172188395
0.5602515319641578|0.5260141728310147|-0.5105401800615893|0.24799116167552332|-0.16424508975381358|0.17172304884382436|0.043109586540636874|0.1272544378288316|0.05080818665133016|0.08758883790369093|0.05005756105538138
0.5605052921831393|0.5251621558942223|-0.509900550382346|0.24446742403563732|-0.16111230176579525|0.17548072717782998|0.04577061163925999|0.13202542588729047|0.05438504884926982|0.09101260915764174|0.05251937576440425
0.5606225243197741|0.5244172355674186|-0.5097425210982731|0.2420343129308651|-0.1578760867073999|0.17915111803105285|0.04885700446191342|0.13428243258448017|0.056338240216022836|0.09353196147331445|0.05394363960942941
0.5606844932878949|0.5238163785213399|-0.5089963124428083|0.24128181599765258|-0.15629876176066984|0.1810924269742882|0.05083261636545611|0.13641817261252204|0.058226417855542015|0.09528911503357312|0.05538199930265559
0.5606570624829025|0.5225186021709166|-0.5081091534686069|0.2402666070143695|-0.1522894116899212|0.18517200127228892|0.05515904463035297|0.13945627490718682|0.0616220532174032|0.09821521027818816|0.05762119082703962
0.5606964790787892|0.521943641897029|-0.5077592141372386|0.2383204999677843|-0.15041929323715442|0.18758610967367928|0.05678584174524707|0.1413494953655508|0.06352679514029204|0.10023240018697521|0.05896779675749093
0.560615132967834|0.5212648506510865|-0.507427924649642|0.2377336320212961|-0.14847810307774556|0.18921359168493682|0.05854173566385409|0.14295524925175013|0.06546985158528384|0.10190366429826204|0.060097611565017424
0.5605639754165701|0.5208184658057712|-0.5072081122883437|0.23725020528469445|-0.14708894003138595|0.1902311980255751|0.059452611383590474|0.14431754557881435|0.06684758537089477|0.10298835202990665|0.06089329843570827
0.5605187880456781|0.5203809742983494|-0.5070617296391787|0.23599269002887036|-0.14547492800101117|0.19248355177202672|0.060526604760667645|0.14533678569874464|0.06766677801363652|0.10397123801439682|0.06188899500398122
0.5605166248106892|0.5197638095223575|-0.506618950044035|0.23453945436759582|-0.14337360255532305|0.19440124326022715|0.0623525702738251|0.1477485612784888|0.06933623626488836|0.1055951260759818|0.0630239751369055
0.5603943065616231|0.5186570868870123|-0.506087361650653|0.23296151639896004|-0.13972425493258603|0.19745759877553015|0.06539719433282112|0.15055145559659605|0.07218340291654372|0.10823520509429278|0.06463245184762044
0.5601857595651043|0.5172996158123268|-0.5054543998853901|0.23062309035203554|-0.13540241635812636|0.2013376972258987|0.0689152416374903|0.15429823344764584|0.07525734342294851|0.11119457610546997|0.066828306462484
0.5599171977565869|0.5161233501272753|-0.5048959466458253|0.22821142782240902|-0.13298355667407324|0.20438652882782032|0.07207507145375923|0.15690623837103843|0.07804829732065499|0.11398825562569727|0.06892984962738805
0.5596156694661493|0.5149342322056981|-0.504718216291323|0.22663439360012858|-0.12895562179283374|0.20739666972639725|0.07498526493566328|0.15944368927442787|0.08018897344582569|0.11609313526681458|0.07052314684574343
0.5593296740452891|0.5139520570957817|-0.504330736286022|0.2242885915299054|-0.12702978332454173|0.21024482919503432|0.07755545553384703|0.16165222433227372|0.08251977972143328|0.11782918590889471|0.07190103907138425
0.559103545446213|0.5130079501524744|-0.5035918875650213|0.22283519849122396|-0.12521849389078438|0.21209065949625272|0.07969005876944919|0.1641133696211661|0.0846910466417791|0.12000872343722768|0.07379203172884148
0.5587502621448448|0.5117871777540048|-0.5029255064135488|0.22031800503573065|-0.12215902586019067|0.21591296063097346|0.08230186595554514|0.1668529229050829|0.08716179663839053|0.12213850298925277|0.07568499851650998
0.5582522081387892|0.5104756028009202|-0.502531977414386|0.21917952480716588|-0.11947583578976406|0.2182559659864051|0.08551655756581031|0.16893157110158127|0.0895707928378393|0.12422650174594309|0.07729701552960966
0.5580660496263185|0.5099677486894124|-0.5024034550860417|0.21811819082074438|-0.11812907763965191|0.21975160686896925|0.08657125382926047|0.16994695031355886|0.09044040952495618|0.1250271199161673|0.07795741591605618
